Cufon.registerFont({"w":659,"face":{"font-family":"MagistralC","font-weight":700,"font-stretch":"normal","units-per-em":"1000","panose-1":"2 0 8 3 0 0 0 0 0 0","ascent":"800","descent":"-200","x-height":"6","bbox":"-40 -865 1088 178.744","underline-thickness":"50","underline-position":"-100","stemh":"90","stemv":"117","unicode-range":"U+0041-U+0451"},"glyphs":{" ":{},"A":{"d":"-30,0r264,-629v25,-59,52,-79,115,-79v60,0,90,20,115,79r264,629r-139,0r-72,-177r-337,0r-71,177r-139,0xm329,-556r-115,285r269,0r-114,-285v-4,-10,-11,-29,-20,-29v-9,0,-16,19,-20,29","w":698},"B":{"d":"179,0v-63,3,-119,-13,-119,-99r0,-500v0,-26,7,-54,22,-72v21,-25,52,-29,74,-29r344,0v38,0,90,4,127,42v39,40,44,104,44,150v0,60,-36,151,-99,150r0,4v33,3,60,18,77,37v33,36,33,86,33,125v0,46,0,102,-40,147v-40,45,-85,45,-128,45r-335,0xm231,-595v-24,-7,-39,19,-39,39r0,150r256,0v56,-4,89,-8,87,-96v0,-19,-1,-54,-23,-75v-19,-18,-43,-18,-65,-18r-216,0xm546,-201v0,-56,-9,-100,-86,-100r-268,0r0,144v-6,46,23,53,51,52r208,0v21,0,57,-1,77,-25v15,-18,18,-49,18,-71","w":722},"C":{"d":"629,0r-295,0v-67,0,-158,-9,-223,-82v-66,-74,-71,-181,-71,-258v0,-100,9,-203,68,-272v70,-82,179,-88,229,-88r281,0r0,105r-219,0v-78,0,-144,5,-184,65v-21,31,-39,84,-39,188v0,105,19,148,33,170v67,104,264,57,420,67r0,105"},"D":{"d":"60,-588v0,-57,20,-112,99,-112r274,0v97,0,163,37,205,83v68,75,71,175,71,259v0,76,-5,196,-62,272v-28,37,-86,86,-196,86r-284,0v-52,0,-73,-15,-78,-19v-13,-10,-29,-31,-29,-70r0,-499xm237,-595v-25,-1,-45,14,-45,42r0,400v-5,27,14,50,43,48v122,-7,255,18,303,-65v28,-48,65,-302,-14,-374v-76,-68,-168,-45,-287,-51","w":749},"E":{"d":"192,-141v1,31,19,36,55,36r374,0r0,105r-455,0v-30,0,-57,0,-80,-22v-24,-23,-26,-55,-26,-82r0,-496v0,-28,9,-56,24,-73v23,-25,57,-27,84,-27r449,0r0,105r-378,0v-25,-5,-53,20,-47,44r0,141r415,0r0,105r-415,0r0,164","w":651},"F":{"d":"225,-595v-19,-5,-37,17,-33,36r0,152r310,0r0,105r-310,0r0,302r-132,0r0,-608v0,-22,5,-47,26,-67v24,-23,51,-25,75,-25r456,0r0,105r-392,0","w":621},"G":{"d":"509,-105v25,2,52,-23,46,-47r0,-191r132,0r0,253v2,68,-43,90,-94,90r-298,0v-78,0,-131,-28,-163,-55v-85,-71,-92,-193,-92,-291v0,-115,11,-244,114,-311v43,-28,102,-43,169,-43r348,0r0,105r-311,0v-76,0,-128,27,-155,76v-12,22,-29,68,-29,169v0,102,17,150,28,172v49,106,175,61,305,73","w":727},"H":{"d":"688,-700r0,700r-132,0r0,-308r-364,0r0,308r-132,0r0,-700r132,0r0,287r364,0r0,-287r132,0","w":748},"I":{"d":"192,0r-132,0r0,-700r132,0r0,700","w":252},"J":{"d":"-20,0r0,-105v95,-4,162,18,228,-35v39,-32,45,-81,45,-140r0,-420r132,0r0,455v0,107,-37,157,-59,179v-29,30,-82,66,-167,66r-179,0","w":445},"K":{"d":"60,0r0,-700r132,0r0,700r-132,0xm730,0r-167,0r-288,-269v-61,-58,-59,-120,-10,-169r265,-262r163,0r-302,287v-16,15,-33,28,-33,52v0,31,22,49,41,66","w":700},"L":{"d":"192,-143v0,21,5,38,42,38r384,0r0,105r-468,0v-51,-2,-90,-17,-90,-76r0,-624r132,0r0,557","w":598},"M":{"d":"775,-543r-179,467v-20,53,-38,84,-100,84v-67,0,-83,-40,-100,-84r-179,-467v-3,-8,-11,-23,-17,-23v-11,0,-11,18,-11,21r3,545r-132,0r0,-616v0,-91,93,-92,113,-92v81,0,104,41,123,90r181,467v13,33,25,34,38,0r181,-467v30,-79,73,-90,123,-90v65,0,113,28,113,92r0,616r-132,0r4,-545v-3,-40,-23,-15,-29,2","w":992},"N":{"d":"730,-700r0,609v0,71,-47,99,-104,99v-42,0,-82,-10,-113,-59r-295,-466v-10,-15,-14,-17,-16,-17v-5,0,-14,6,-14,20r0,514r-128,0r0,-613v0,-60,41,-95,107,-95v62,0,92,25,111,55r297,469v5,7,7,17,16,17v11,0,11,-12,11,-17r0,-516r128,0","w":790},"O":{"d":"400,-708v83,0,202,0,279,74v73,70,80,192,80,284v0,92,-8,214,-80,284v-76,74,-198,74,-279,74v-83,0,-202,0,-279,-74v-81,-78,-81,-205,-81,-284v0,-95,5,-212,81,-284v78,-74,194,-74,279,-74xm399,-603v-160,0,-223,53,-223,253v0,114,20,166,43,195v41,53,107,58,180,58v72,0,139,-5,181,-58v23,-29,43,-82,43,-195v0,-121,-21,-169,-43,-196v-41,-51,-110,-57,-181,-57","w":799},"P":{"d":"192,0r-132,0r0,-595v0,-26,0,-54,24,-78v23,-23,55,-27,79,-27r333,0v37,0,96,0,139,42v48,46,53,125,53,184v0,57,-6,147,-61,192v-26,21,-66,34,-107,34r-328,0r0,248xm232,-595v-20,-5,-46,17,-40,42r0,200r251,0v29,0,66,2,86,-26v37,-54,33,-139,-2,-192v-23,-23,-60,-24,-82,-24r-213,0","w":728},"Q":{"d":"759,-357v0,86,-13,201,-77,248r0,4r100,-4r0,109r-382,0v-140,0,-219,-9,-277,-66v-84,-82,-83,-206,-83,-282v0,-101,5,-212,81,-286v59,-57,143,-74,279,-74v137,0,219,16,279,74v54,52,80,126,80,277xm176,-351v0,120,23,167,43,192v42,51,107,54,180,54v74,0,140,-3,181,-54v17,-21,43,-69,43,-192v0,-106,-16,-160,-43,-194v-42,-53,-106,-58,-181,-58v-73,0,-138,5,-180,58v-21,27,-43,74,-43,194","w":806},"R":{"d":"241,-595v-28,-5,-54,24,-49,50r0,545r-132,0r0,-581v0,-29,1,-64,29,-91v25,-24,58,-28,84,-28r332,0v49,0,109,3,150,64v33,48,35,103,35,154v0,112,-18,231,-162,230r-90,0r0,5r266,247r-166,0r-230,-227v-39,-29,-57,-123,26,-123r132,0v23,0,54,-3,72,-31v14,-22,16,-72,16,-96v0,-93,-34,-118,-99,-118r-214,0","w":734},"S":{"d":"39,0r0,-105r388,0v63,0,66,-52,66,-76v0,-28,-7,-60,-68,-79r-276,-87v-11,-3,-55,-18,-83,-52v-32,-38,-36,-93,-36,-132v0,-42,5,-93,45,-130v36,-34,81,-39,115,-39r403,0r0,105r-358,0v-18,0,-39,1,-55,16v-17,16,-18,41,-18,54v0,31,9,61,65,79r256,81v47,15,79,30,100,50v42,40,46,102,46,135v0,44,-6,93,-35,130v-35,45,-79,50,-125,50r-430,0"},"T":{"d":"395,0r-132,0r0,-595r-273,0r0,-105r679,0r0,105r-274,0r0,595"},"U":{"d":"364,-97v38,0,103,-5,139,-45v32,-35,33,-87,33,-122r0,-436r132,0r0,454v0,59,-8,125,-61,179v-70,72,-179,75,-243,75v-64,0,-173,-3,-243,-75v-53,-54,-61,-120,-61,-179r0,-454r132,0r0,436v0,39,1,86,34,122v37,40,97,45,138,45","w":728},"V":{"d":"113,-700r209,565v2,5,6,15,15,15v9,0,13,-10,15,-15r209,-565r143,0r-254,632v-13,33,-42,76,-113,76v-32,0,-85,-7,-113,-76r-254,-632r143,0","w":674},"W":{"d":"273,-157r130,-479v7,-26,23,-72,97,-72v69,0,89,41,97,72r130,479v7,19,23,27,31,-4r139,-539r134,0r-169,610v-13,46,-31,98,-113,98v-76,0,-99,-43,-112,-90r-123,-453v-5,-27,-21,-20,-27,0r-124,453v-11,39,-29,90,-111,90v-56,0,-93,-21,-114,-98r-168,-610r134,0r139,539v2,6,5,21,15,21v6,0,13,-10,15,-17","w":1001},"X":{"d":"658,0r-157,0r-187,-262r-187,262r-157,0r269,-355r-261,-345r157,0r179,252r179,-252r157,0r-261,345","w":628},"Y":{"d":"332,-333r220,-367r142,0r-296,486r0,214r-132,0r0,-214r-296,-486r142,0","w":664},"Z":{"d":"600,0r-502,0v-32,0,-96,-3,-96,-72v0,-43,23,-73,43,-94r382,-395v11,-12,24,-34,-7,-34r-391,0r0,-105r503,0v39,0,79,15,79,72v0,45,-20,65,-40,86r-387,408v-11,5,-15,29,2,29r414,0r0,105","w":613},"a":{"d":"366,-530v100,5,149,53,149,166r0,275v0,19,-2,49,-21,68v-19,19,-48,21,-73,21r-253,0v-29,0,-66,0,-96,-26v-43,-37,-46,-105,-46,-144v0,-47,5,-94,45,-129v33,-29,69,-31,97,-31r230,0v-1,-37,5,-61,-15,-87v-16,-20,-39,-23,-57,-23r-261,0r0,-90r301,0xm364,-90v15,3,39,-11,34,-28r0,-122r-195,0v-30,4,-56,11,-56,75v0,32,14,75,54,75r163,0","w":555},"b":{"d":"40,-700r117,0r0,170v152,7,264,-32,340,87v53,83,44,288,1,356v-76,120,-195,87,-350,87v-30,0,-60,-1,-84,-23v-21,-20,-24,-45,-24,-66r0,-611xm157,-134v-5,24,12,46,40,44v89,-8,147,23,196,-54v8,-13,18,-43,18,-113v0,-84,-14,-117,-18,-125v-45,-85,-133,-51,-236,-58r0,306","w":558},"c":{"d":"286,-440v-121,-3,-141,84,-139,184v0,31,3,82,17,110v26,51,84,56,133,56r190,0r0,90r-255,0v-40,0,-110,-8,-158,-65v-44,-52,-48,-118,-48,-193v0,-63,1,-154,60,-215v22,-22,67,-57,162,-57r227,0r0,90r-189,0","w":513},"d":{"d":"402,-700r117,0r0,607v0,23,-5,51,-16,66v-18,25,-49,27,-73,27r-209,0v-53,0,-131,-13,-169,-105v-29,-71,-46,-261,15,-346v54,-74,135,-79,178,-79r157,0r0,-170xm402,-440v-98,8,-182,-27,-232,47v-12,19,-23,52,-23,124v0,83,9,109,14,119v42,82,107,55,201,60v5,0,23,0,31,-8v9,-8,9,-29,9,-37r0,-305","w":559},"e":{"d":"537,-326v0,48,-28,100,-82,100r-308,0v0,23,3,57,7,73v15,57,64,63,107,63r259,0r0,90r-294,0v-54,0,-118,-5,-162,-67v-35,-50,-38,-123,-38,-193v0,-99,5,-172,63,-222v58,-50,148,-50,198,-50v62,0,126,3,175,34v62,39,75,105,75,172xm416,-347v1,-73,-70,-95,-134,-95v-31,0,-79,-1,-111,35v-24,27,-23,56,-24,91r243,0v23,0,26,-17,26,-31","w":563},"f":{"d":"199,0r-117,0r0,-440r-74,0r0,-89r74,0v1,-35,10,-97,55,-134v50,-41,147,-46,207,-44r0,86v-106,3,-137,-3,-145,91r145,0r0,90r-145,0r0,440","w":352},"g":{"d":"63,175r0,-90r223,0v25,0,70,-1,98,-24v16,-14,28,-37,31,-61r-188,0v-55,0,-120,-4,-160,-68v-53,-85,-66,-323,15,-404v90,-90,193,-58,334,-58v30,0,61,1,86,21v27,22,31,55,31,77r0,372v0,68,-8,129,-43,171v-49,58,-139,64,-177,64r-250,0xm416,-398v4,-59,-86,-42,-146,-42v-38,0,-73,11,-91,33v-58,70,-29,259,-2,286v55,55,148,23,239,31r0,-308","w":573},"h":{"d":"316,-530v127,0,206,42,206,181r0,349r-117,0r0,-318v0,-22,-1,-65,-26,-91v-55,-56,-133,-22,-222,-31r0,440r-117,0r0,-700r117,0r0,170r159,0","w":562},"i":{"d":"40,0r0,-530r117,0r0,530r-117,0xm157,-607r-117,0r0,-93r117,0r0,93","w":197},"j":{"d":"-40,178r0,-90v64,1,90,-3,117,-23v27,-19,41,-45,41,-102r0,-493r117,0r0,517v0,92,-44,134,-68,152v-43,31,-108,43,-207,39xm235,-607r-117,0r0,-93r117,0r0,93","w":275},"k":{"d":"157,0r-117,0r0,-700r117,0r0,700xm551,0r-140,0r-183,-194v-15,-16,-36,-43,-36,-80v0,-40,22,-63,37,-80r160,-176r136,0r-199,214v-26,23,-16,62,8,87","w":537},"l":{"d":"40,0r0,-700r117,0r0,700r-117,0","w":197},"m":{"d":"188,-440v-32,6,-31,-1,-31,36r0,404r-117,0r0,-438v0,-15,2,-41,15,-60v20,-28,56,-32,80,-32r477,0v38,0,97,7,135,42v30,29,48,77,48,130r0,358r-117,0r0,-340v0,-23,-2,-55,-22,-75v-43,-44,-109,-19,-180,-25r0,440r-117,0r0,-440r-171,0","w":835},"n":{"d":"183,-440v-15,-4,-29,14,-26,28r0,412r-117,0r0,-449v0,-16,1,-40,17,-57v22,-25,58,-24,81,-24r187,0v114,-1,200,44,200,181r0,349r-117,0r0,-314v2,-73,-23,-126,-106,-126r-119,0","w":565},"o":{"d":"308,-536v63,0,156,2,214,56v61,57,68,157,68,213v0,112,-29,179,-68,216v-57,53,-153,57,-214,57v-63,0,-156,-4,-214,-57v-63,-58,-68,-158,-68,-212v0,-60,7,-160,68,-217v58,-54,151,-56,214,-56xm147,-264v0,44,1,98,34,136v34,39,85,44,127,44v44,0,91,-5,126,-44v35,-39,35,-90,35,-136v0,-39,3,-99,-34,-140v-34,-38,-85,-42,-127,-42v-38,0,-95,4,-128,42v-33,38,-33,106,-33,140","w":616},"p":{"d":"40,-448v1,-63,46,-82,96,-82v148,0,241,-37,341,58v57,53,56,138,56,196v0,70,-1,148,-42,200v-87,111,-187,67,-334,76r0,170r-117,0r0,-618xm181,-440v-12,0,-24,14,-24,25r0,325r133,0v58,0,87,-28,100,-49v11,-16,22,-48,22,-127v0,-72,-8,-100,-14,-114v-15,-34,-50,-60,-102,-60r-115,0","w":559},"q":{"d":"519,170r-117,0r0,-170r-189,0v-38,0,-101,-8,-145,-69v-38,-52,-42,-115,-42,-186v0,-60,2,-151,51,-214v39,-51,100,-61,140,-61r214,0v31,0,59,12,73,31v14,19,15,48,15,68r0,601xm402,-404v4,-16,-20,-43,-43,-36v-91,2,-168,-16,-199,61v-18,42,-19,171,-3,222v20,62,73,67,102,67r143,0r0,-314","w":559},"r":{"d":"40,0r0,-330v0,-58,8,-117,55,-154v77,-61,139,-44,238,-46r0,90v-65,1,-107,-9,-149,37v-23,26,-27,64,-27,104r0,299r-117,0","w":333},"s":{"d":"501,-135v-1,104,-51,135,-129,135r-339,0r0,-90r298,0v40,6,73,-57,34,-88v-48,-39,-279,-61,-314,-126v-34,-64,-38,-119,0,-180v28,-45,82,-46,127,-46r299,0r0,90r-281,0v-47,-8,-80,53,-39,89v88,50,251,56,312,119v28,28,32,68,32,97","w":527},"t":{"d":"341,0v-162,7,-268,-18,-268,-173r0,-267r-73,0r0,-90r73,0r0,-170r117,0r0,170r148,0r0,90r-148,0r0,213v0,36,-4,87,31,114v38,29,75,22,120,23r0,90","w":341},"u":{"d":"369,-90v30,3,44,-19,44,-43r0,-397r117,0r0,435v0,19,-1,53,-28,75v-23,19,-55,20,-83,20r-187,0v-128,8,-192,-75,-192,-196r0,-334r117,0r0,313v-4,94,34,127,115,127r97,0","w":570},"v":{"d":"97,-530r149,393v3,8,9,21,14,21v5,0,11,-13,14,-21r148,-393r121,0r-202,489v-18,45,-52,47,-81,47v-21,0,-62,1,-82,-47r-202,-489r121,0","w":519},"w":{"d":"88,-530r102,392v1,5,5,16,10,16v6,0,9,-12,10,-15r97,-350v13,-47,57,-49,77,-49v24,0,65,5,77,49r98,350v2,17,15,18,20,-1r101,-392r112,0r-126,464v-17,62,-52,72,-91,72v-28,0,-76,-5,-91,-59r-92,-332v-1,-4,-3,-17,-8,-17v-5,0,-7,13,-8,17r-92,332v-8,27,-30,59,-91,59v-71,0,-84,-44,-91,-72r-126,-464r112,0","w":768},"x":{"d":"517,0r-137,0r-134,-196r-133,196r-137,0r203,-272r-190,-258r133,0r124,182r124,-182r133,0r-189,258","w":493},"y":{"d":"566,-528r-316,699r-119,0r81,-173r-236,-528r121,0r170,407r180,-405r119,0","w":542},"z":{"d":"460,-90r0,90r-383,0v-18,0,-75,-3,-75,-71v0,-40,18,-58,36,-76r272,-273v7,-7,8,-10,8,-12v0,-3,-2,-8,-10,-8r-289,0r0,-90r375,0v41,0,69,25,69,67v0,40,-16,57,-31,72r-275,283v-9,7,-12,18,1,18r302,0","w":465},"\u0401":{"d":"192,-141v1,31,19,36,55,36r374,0r0,105r-455,0v-30,0,-57,0,-80,-22v-24,-23,-26,-55,-26,-82r0,-496v0,-28,9,-56,24,-73v23,-25,57,-27,84,-27r449,0r0,105r-378,0v-25,-5,-53,20,-47,44r0,141r415,0r0,105r-415,0r0,164xm514,-769r-112,0r0,-96r112,0r0,96xm284,-769r-112,0r0,-96r112,0r0,96","w":661},"\u0451":{"d":"537,-326v0,48,-28,100,-82,100r-308,0v0,23,3,57,7,73v15,57,64,63,107,63r259,0r0,90r-294,0v-54,0,-118,-5,-162,-67v-35,-50,-38,-123,-38,-193v0,-99,5,-172,63,-222v58,-50,148,-50,198,-50v62,0,126,3,175,34v62,39,75,105,75,172xm416,-347v1,-73,-70,-95,-134,-95v-31,0,-79,-1,-111,35v-24,27,-23,56,-24,91r243,0v23,0,26,-17,26,-31xm334,-609r0,-98r108,0r0,98r-108,0xm227,-609r-108,0r0,-98r108,0r0,98","w":563},"\u0410":{"d":"-30,0r264,-629v25,-59,52,-79,115,-79v60,0,90,20,115,79r264,629r-139,0r-72,-177r-337,0r-71,177r-139,0xm329,-556r-115,285r269,0r-114,-285v-4,-10,-11,-29,-20,-29v-9,0,-16,19,-20,29","w":698},"\u0411":{"d":"60,-598v0,-54,24,-102,95,-102r494,0r0,105r-410,0v-13,0,-28,1,-37,8v-10,9,-10,26,-10,35r0,145r333,0v35,0,85,9,124,52v50,55,42,277,-2,309v-15,17,-51,46,-120,46r-378,0v-64,2,-90,-43,-89,-93r0,-505xm192,-157v-6,60,22,52,55,52r212,0v24,0,49,0,69,-20v22,-22,21,-61,21,-82v0,-26,-1,-56,-22,-76v-19,-18,-46,-19,-68,-19r-267,0r0,145","w":725},"\u0412":{"d":"179,0v-63,3,-119,-13,-119,-99r0,-500v0,-26,7,-54,22,-72v21,-25,52,-29,74,-29r344,0v38,0,90,4,127,42v39,40,44,104,44,150v0,60,-36,151,-99,150r0,4v33,3,60,18,77,37v33,36,33,86,33,125v0,46,0,102,-40,147v-40,45,-85,45,-128,45r-335,0xm231,-595v-24,-7,-39,19,-39,39r0,150r256,0v56,-4,89,-8,87,-96v0,-19,-1,-54,-23,-75v-19,-18,-43,-18,-65,-18r-216,0xm546,-201v0,-56,-9,-100,-86,-100r-268,0r0,144v-6,46,23,53,51,52r208,0v21,0,57,-1,77,-25v15,-18,18,-49,18,-71","w":722},"\u0413":{"d":"60,-599v-5,-53,32,-101,93,-101r468,0r0,105r-377,0v-14,0,-37,-1,-46,10v-6,8,-6,23,-6,36r0,549r-132,0r0,-599","w":611},"\u0414":{"d":"49,-105r236,-529v18,-40,41,-74,112,-74v62,0,90,24,112,74r235,529r59,0r0,105r-813,0r0,-105r59,0xm380,-559r-196,454r425,0r-196,-454v-3,-6,-8,-22,-16,-22v-8,0,-15,16,-17,22","w":793},"\u0415":{"d":"192,-141v1,31,19,36,55,36r374,0r0,105r-455,0v-30,0,-57,0,-80,-22v-24,-23,-26,-55,-26,-82r0,-496v0,-28,9,-56,24,-73v23,-25,57,-27,84,-27r449,0r0,105r-378,0v-25,-5,-53,20,-47,44r0,141r415,0r0,105r-415,0r0,164","w":651},"\u0416":{"d":"-20,0r285,-295v15,-15,37,-41,37,-66v0,-21,-15,-37,-29,-52r-257,-287r160,0r220,260v38,58,63,91,-10,173r-238,267r-168,0xm1088,0r-168,0r-238,-267v-18,-21,-46,-54,-46,-93v0,-33,21,-62,36,-80r220,-260r160,0r-257,287v-14,15,-29,31,-29,52v0,25,22,51,37,66xm468,0r0,-700r132,0r0,700r-132,0","w":1068},"\u0417":{"d":"513,-353v81,10,112,55,112,166v0,50,-4,122,-63,159v-40,25,-102,28,-150,28r-362,0r0,-105r322,0v12,0,62,-1,83,-13v32,-18,34,-57,34,-85v0,-57,-5,-98,-105,-98r-320,0r0,-105r303,0v45,0,77,-6,92,-22v18,-19,17,-52,17,-73v0,-26,1,-59,-23,-79v-17,-14,-40,-15,-61,-15r-338,0r0,-105r368,0v46,0,103,-1,147,43v39,40,43,94,43,146v0,68,-33,144,-99,154r0,4","w":665},"\u0418":{"d":"726,0r-132,0r4,-532v0,-11,-1,-23,-10,-23v-8,0,-16,16,-26,32r-288,465v-19,31,-40,66,-111,66v-101,0,-103,-80,-103,-120r0,-588r132,0r-3,522v0,16,-1,32,12,32v8,0,13,-12,19,-22r282,-462v38,-62,69,-78,117,-78v105,0,107,91,107,126r0,582","w":786},"\u0419":{"d":"726,0r-132,0r4,-532v0,-11,-1,-23,-10,-23v-8,0,-16,16,-26,32r-288,465v-19,31,-40,66,-111,66v-101,0,-103,-80,-103,-120r0,-588r132,0r-3,522v0,16,-1,32,12,32v8,0,13,-12,19,-22r282,-462v38,-62,69,-78,117,-78v105,0,107,91,107,126r0,582xm289,-859v19,87,184,88,203,0r95,0v-10,35,-34,80,-68,105v-69,49,-195,44,-257,0v-34,-24,-58,-70,-68,-105r95,0","w":786},"\u041a":{"d":"60,0r0,-700r132,0r0,700r-132,0xm730,0r-167,0r-288,-269v-41,-38,-48,-72,-48,-90v0,-14,4,-45,38,-79r265,-262r163,0r-302,287v-23,22,-37,39,-37,54v0,22,25,46,45,64","w":700},"\u041b":{"d":"-30,0r271,-642v14,-32,33,-66,107,-66v74,0,93,34,107,66r270,642r-140,0r-221,-559v-3,-9,-6,-20,-16,-20v-11,0,-14,12,-17,20r-221,559r-140,0","w":695},"\u041c":{"d":"775,-543r-179,467v-24,63,-42,84,-100,84v-54,0,-75,-18,-100,-84r-179,-467v-3,-8,-11,-23,-17,-23v-11,0,-11,18,-11,21r3,545r-132,0r0,-616v0,-91,93,-92,113,-92v51,0,93,12,123,90r181,467v13,33,25,34,38,0r181,-467v30,-78,72,-90,123,-90v65,0,113,28,113,92r0,616r-132,0r4,-545v-3,-40,-23,-15,-29,2","w":992},"\u041d":{"d":"688,-700r0,700r-132,0r0,-308r-364,0r0,308r-132,0r0,-700r132,0r0,287r364,0r0,-287r132,0","w":748},"\u041e":{"d":"400,-708v81,0,203,0,279,74v71,70,79,192,79,284v0,75,-3,209,-79,284v-75,74,-200,74,-279,74v-83,0,-202,0,-279,-74v-81,-78,-81,-205,-81,-284v0,-95,5,-212,81,-284v78,-74,194,-74,279,-74xm176,-350v0,189,59,255,223,253v59,0,134,-2,179,-60v26,-33,44,-90,44,-193v0,-105,-17,-160,-44,-194v-45,-57,-121,-59,-179,-59v-61,0,-132,2,-178,59v-28,35,-45,87,-45,194","w":798},"\u041f":{"d":"60,-605v-7,-52,48,-95,105,-95r414,0v28,0,55,1,79,25v21,21,25,46,25,70r0,605r-132,0r0,-553v0,-10,1,-24,-8,-33v-9,-10,-23,-9,-32,-9r-278,0v-24,-5,-41,15,-41,42r0,553r-132,0r0,-605","w":743},"\u0420":{"d":"192,0r-132,0r0,-595v0,-26,0,-54,24,-78v23,-23,55,-27,79,-27r333,0v37,0,96,0,139,42v48,46,53,125,53,184v0,57,-6,147,-61,192v-26,21,-66,34,-107,34r-328,0r0,248xm232,-595v-20,-5,-46,17,-40,42r0,200r251,0v29,0,66,2,86,-26v37,-54,33,-139,-2,-192v-23,-23,-60,-24,-82,-24r-213,0","w":728},"\u0421":{"d":"629,0r-295,0v-67,0,-158,-9,-223,-82v-66,-74,-71,-181,-71,-258v0,-100,9,-203,68,-272v70,-82,179,-88,229,-88r281,0r0,105r-219,0v-78,0,-144,5,-184,65v-21,31,-39,84,-39,188v0,105,19,148,33,170v67,104,264,57,420,67r0,105"},"\u0422":{"d":"395,0r-132,0r0,-595r-273,0r0,-105r679,0r0,105r-274,0r0,595"},"\u0423":{"d":"337,0r-143,0r85,-155r-299,-545r146,0r221,424r213,-424r144,0","w":684},"\u0424":{"d":"400,-700r132,0r0,57v135,0,261,-8,313,76v38,61,47,134,47,208v0,72,-5,150,-40,208v-59,100,-180,81,-320,83r0,68r-132,0r0,-68v-140,-2,-261,16,-320,-83v-34,-58,-40,-136,-40,-208v0,-74,9,-147,47,-208v53,-84,177,-76,313,-76r0,-57xm400,-173r0,-365v-139,2,-224,-14,-224,179v0,78,8,108,15,121v42,80,119,62,209,65xm532,-173v90,-2,163,13,209,-65v16,-28,22,-214,-4,-242v-40,-73,-114,-56,-205,-58r0,365","w":932},"\u0425":{"d":"666,0r-156,0r-187,-262r-187,262r-156,0r268,-355r-260,-345r156,0r179,252r179,-252r156,0r-260,345","w":646},"\u0426":{"d":"779,0r-607,0v-29,0,-58,0,-82,-20v-27,-23,-30,-56,-30,-82r0,-598r132,0r0,540v0,13,-3,34,6,44v9,11,29,11,39,11r314,0r0,-595r132,0r0,595r96,0r0,105","w":769},"\u0427":{"d":"656,0r-132,0r0,-298r-321,0v-18,0,-84,-3,-125,-61v-23,-32,-28,-67,-28,-113r0,-228r132,0r0,204v0,26,0,54,18,72v19,19,55,21,75,21r249,0r0,-297r132,0r0,700","w":716},"\u0428":{"d":"192,-149v-5,23,13,50,37,44r227,0r0,-595r132,0r0,595r228,0v23,6,42,-22,36,-44r0,-551r132,0r0,611v0,15,-1,45,-22,66v-22,22,-56,23,-69,23r-742,0v-21,0,-47,-3,-68,-23v-22,-21,-23,-44,-23,-66r0,-611r132,0r0,551","w":1044},"\u0429":{"d":"192,-149v-5,22,13,50,36,44r228,0r0,-595r132,0r0,595r264,0r0,-595r132,0r0,595r96,0r0,105r-929,0v-21,0,-48,-3,-68,-23v-20,-20,-23,-46,-23,-66r0,-611r132,0r0,551","w":1070},"\u042a":{"d":"125,-547v7,-78,-78,-38,-135,-48r0,-105v125,8,267,-39,267,101r0,186r332,0v33,0,102,4,137,67v19,34,26,90,26,139v0,98,-27,139,-32,146v-13,18,-53,61,-138,61r-372,0v-71,-3,-85,-52,-85,-106r0,-441xm257,-308v3,64,-8,137,6,192v8,11,24,11,38,11r213,0v10,0,55,0,77,-19v25,-21,25,-58,25,-87v0,-31,-1,-64,-28,-84v-19,-14,-43,-13,-67,-13r-264,0","w":792},"\u042b":{"d":"145,0v-71,-3,-85,-52,-85,-106r0,-594r132,0r0,287r332,0v33,0,102,4,137,67v19,34,26,90,26,139v0,98,-27,139,-32,146v-13,18,-53,61,-138,61r-372,0xm192,-308v3,64,-8,137,6,192v8,11,24,11,38,11r213,0v10,0,55,0,77,-19v25,-21,25,-58,25,-87v0,-31,-1,-64,-28,-84v-19,-14,-43,-13,-67,-13r-264,0xm895,0r-132,0r0,-700r132,0r0,700","w":955},"\u042c":{"d":"145,0v-71,-3,-85,-52,-85,-106r0,-594r132,0r0,287r332,0v33,0,102,4,137,67v19,34,26,90,26,139v0,98,-27,139,-32,146v-13,18,-53,61,-138,61r-372,0xm192,-308v3,64,-8,137,6,192v8,11,24,11,38,11r213,0v10,0,55,0,77,-19v25,-21,25,-58,25,-87v0,-31,-1,-64,-28,-84v-19,-14,-43,-13,-67,-13r-264,0","w":727},"\u042d":{"d":"490,-408v-3,-105,-62,-187,-192,-187r-248,0r0,-105r290,0v46,0,141,5,209,72v70,70,77,177,77,272v0,138,-17,233,-88,294v-61,52,-143,62,-198,62r-300,0r0,-105v129,-6,307,20,383,-34v52,-37,66,-86,67,-164r-426,0r0,-105r426,0","w":666},"\u042e":{"d":"192,-410r88,0v-1,-78,24,-171,80,-224v78,-74,195,-74,279,-74v85,0,200,0,279,74v67,63,80,163,80,284v0,94,-5,212,-80,284v-77,74,-196,74,-279,74v-83,0,-202,0,-279,-74v-59,-57,-82,-160,-80,-239r-88,0r0,305r-132,0r0,-700r132,0r0,290xm639,-97v162,0,223,-65,223,-253v0,-107,-17,-159,-45,-194v-46,-57,-117,-59,-178,-59v-60,0,-134,2,-179,59v-27,34,-44,89,-44,194v0,103,18,159,44,193v42,55,106,60,179,60","w":1038},"\u042f":{"d":"203,-244v-117,3,-153,-119,-153,-235v0,-46,0,-106,33,-157v36,-56,88,-64,148,-64r343,0v22,0,52,4,77,28v27,25,28,50,28,82r0,590r-132,0r0,-549v4,-22,-23,-51,-49,-46r-220,0v-21,0,-47,1,-68,23v-23,24,-24,63,-24,97v0,90,10,126,80,126r138,0v13,0,60,1,60,43v0,34,4,44,-30,77r-234,229r-170,0r264,-240r0,-4r-91,0","w":739},"\u0430":{"d":"366,-530v100,5,149,53,149,166r0,275v0,19,-2,49,-21,68v-19,19,-48,21,-73,21r-253,0v-29,0,-66,0,-96,-26v-43,-37,-46,-105,-46,-144v0,-47,5,-94,45,-129v33,-29,69,-31,97,-31r230,0v-1,-37,5,-61,-15,-87v-16,-20,-39,-23,-57,-23r-261,0r0,-90r301,0xm364,-90v15,3,39,-11,34,-28r0,-122r-195,0v-30,4,-56,11,-56,75v0,32,14,75,54,75r163,0","w":555},"\u0431":{"d":"335,-508v172,-1,214,102,213,248v0,47,0,129,-37,186v-51,79,-141,80,-220,80v-74,0,-174,0,-224,-85v-27,-46,-27,-92,-27,-138r0,-276v0,-34,4,-84,29,-126v19,-32,64,-81,163,-81r285,0r0,90r-231,0v-29,0,-73,0,-101,26v-16,15,-29,45,-28,76r178,0xm157,-206v4,91,44,122,132,122v36,0,80,-11,102,-32v56,-55,41,-217,9,-263v-10,-13,-37,-39,-91,-39r-152,0r0,212","w":574},"\u0432":{"d":"436,-273v64,6,89,63,89,123v0,28,-2,83,-36,117v-32,32,-76,33,-107,33r-252,0v-22,0,-52,-2,-70,-19v-18,-16,-20,-42,-20,-59r0,-369v0,-19,2,-43,24,-62v22,-19,48,-21,71,-21r240,0v36,0,87,1,120,38v26,30,28,73,28,98v0,60,-32,114,-87,121xm186,-440v-14,-3,-33,12,-29,26r0,95r181,0v15,0,36,-1,49,-16v38,-43,8,-105,-47,-105r-154,0xm157,-229v6,51,-21,142,31,139v70,-5,153,15,200,-16v23,-32,25,-75,2,-106v-13,-18,-37,-17,-50,-17r-183,0","w":551},"\u0433":{"d":"189,-440v-23,1,-32,19,-32,42r0,398r-117,0r0,-443v0,-21,0,-42,11,-59v16,-25,41,-28,63,-28r369,0r0,90r-294,0","w":463},"\u0434":{"d":"38,-90r165,-394v12,-29,32,-52,86,-52v56,0,74,26,85,52r166,394r47,0r0,90r-597,0r0,-90r48,0xm278,-419r-126,329r274,0r-127,-329v-2,-16,-15,-17,-21,0","w":577},"\u0435":{"d":"537,-326v0,48,-28,100,-82,100r-308,0v0,23,3,57,7,73v15,57,64,63,107,63r259,0r0,90r-294,0v-54,0,-118,-5,-162,-67v-35,-50,-38,-123,-38,-193v0,-99,5,-172,63,-222v58,-50,148,-50,198,-50v62,0,126,3,175,34v62,39,75,105,75,172xm416,-347v1,-73,-70,-95,-134,-95v-31,0,-79,-1,-111,35v-24,27,-23,56,-24,91r243,0v23,0,26,-17,26,-31","w":563},"\u0436":{"d":"459,0r-113,0r0,-530r113,0r0,530xm825,0r-138,0r-173,-210v-13,-15,-31,-36,-31,-60v0,-23,19,-49,37,-72r150,-188r136,0r-181,217v-38,41,-25,51,0,80xm-20,0r200,-233v7,-9,22,-31,22,-41v0,-9,-14,-30,-22,-39r-182,-217r136,0r151,188v18,23,37,49,37,72v0,24,-18,45,-31,60r-173,210r-138,0","w":805},"\u0437":{"d":"500,-148v5,112,-62,149,-147,148r-313,0r0,-90r266,0v46,0,74,-15,73,-72v0,-18,-2,-39,-22,-53v-16,-12,-38,-13,-50,-13r-252,0r0,-90r256,0v37,1,65,-15,65,-61v0,-47,-39,-61,-68,-61r-258,0r0,-90r302,0v38,0,79,3,110,33v29,28,35,70,35,102v0,84,-21,104,-84,120r0,3v66,15,84,40,87,124","w":530},"\u0438":{"d":"559,0r-117,0r4,-377v0,-19,-8,-19,-20,0r-233,341v-19,28,-36,42,-76,42v-69,0,-77,-47,-77,-75r0,-461r117,0r-5,377v0,24,15,11,22,0r236,-347v21,-30,48,-36,72,-36v16,0,77,2,77,81r0,455","w":599},"\u0439":{"d":"559,0r-117,0r4,-377v0,-19,-8,-19,-20,0r-233,341v-19,28,-36,42,-76,42v-69,0,-77,-47,-77,-75r0,-461r117,0r-5,377v0,24,15,11,22,0r236,-347v21,-30,48,-36,72,-36v16,0,77,2,77,81r0,455xm207,-693v7,36,52,73,94,67v41,5,87,-30,94,-67r91,0v-11,38,-33,80,-57,101v-39,35,-92,39,-128,39v-36,0,-89,-4,-128,-39v-24,-21,-46,-63,-57,-101r91,0","w":599},"\u043a":{"d":"157,0r-117,0r0,-530r117,0r0,530xm544,0r-141,0r-193,-211v-12,-13,-30,-35,-30,-62v0,-27,22,-52,37,-69r169,-188r139,0r-201,214v-24,17,-31,54,-6,80","w":514},"\u043b":{"d":"-10,0r215,-492v28,-60,130,-60,156,0r215,492r-120,0r-163,-409v-3,-17,-17,-18,-20,0r-163,409r-120,0","w":566},"\u043c":{"d":"573,-382r-135,344v-8,21,-26,44,-68,44v-42,0,-60,-23,-68,-44r-136,-344v0,-10,-14,-16,-14,-2r5,384r-117,0r0,-460v0,-95,149,-101,181,-19r134,337v2,5,10,21,15,21v5,0,13,-16,15,-21r134,-337v24,-85,180,-75,181,19r0,460r-117,0r5,-384v-2,-18,-11,-7,-15,2","w":740},"\u043d":{"d":"527,0r-117,0r0,-228r-253,0r0,228r-117,0r0,-530r117,0r0,212r253,0r0,-212r117,0r0,530","w":567},"\u043e":{"d":"308,-536v63,0,156,2,214,56v61,57,68,157,68,213v0,112,-29,179,-68,216v-57,53,-153,57,-214,57v-63,0,-156,-4,-214,-57v-63,-58,-68,-158,-68,-212v0,-60,7,-160,68,-217v58,-54,151,-56,214,-56xm147,-264v0,44,1,98,34,136v34,39,85,44,127,44v44,0,91,-5,126,-44v35,-39,35,-90,35,-136v0,-39,3,-99,-34,-140v-34,-38,-85,-42,-127,-42v-38,0,-95,4,-128,42v-33,38,-33,106,-33,140","w":616},"\u043f":{"d":"185,-440v-23,0,-28,12,-28,31r0,409r-117,0r0,-442v0,-19,-1,-40,18,-62v23,-26,49,-26,72,-26r308,0v27,0,53,2,73,26v16,19,17,39,17,62r0,442r-117,0r0,-409v3,-16,-10,-31,-28,-31r-198,0","w":568},"\u0440":{"d":"40,-448v1,-63,46,-82,96,-82v148,0,241,-37,341,58v57,53,56,138,56,196v0,70,-1,148,-42,200v-87,111,-187,67,-334,76r0,170r-117,0r0,-618xm181,-440v-12,0,-24,14,-24,25r0,325r133,0v58,0,87,-28,100,-49v11,-16,22,-48,22,-127v0,-72,-8,-100,-14,-114v-15,-34,-50,-60,-102,-60r-115,0","w":559},"\u0441":{"d":"286,-440v-121,-3,-141,84,-139,184v0,31,3,82,17,110v26,51,84,56,133,56r190,0r0,90r-255,0v-40,0,-110,-8,-158,-65v-44,-52,-48,-118,-48,-193v0,-63,1,-154,60,-215v22,-22,67,-57,162,-57r227,0r0,90r-189,0","w":513},"\u0442":{"d":"316,0r-117,0r0,-440r-199,0r0,-90r515,0r0,90r-199,0r0,440","w":515},"\u0443":{"d":"581,-530r-317,700r-119,0r81,-172r-236,-528r124,0r169,402r179,-402r119,0","w":571},"\u0444":{"d":"344,-700r117,0r0,170v130,3,210,-21,281,83v39,57,37,129,37,188v0,71,-2,134,-44,187v-78,99,-149,66,-274,72r0,170r-117,0r0,-170v-125,-5,-194,27,-274,-72v-40,-50,-44,-121,-44,-187v0,-55,0,-134,37,-188v70,-104,151,-80,281,-83r0,-170xm147,-258v0,103,22,177,139,168r58,0r0,-350v-74,2,-125,-13,-172,42v-19,22,-25,63,-25,140xm519,-90v117,8,139,-65,139,-168v0,-66,-3,-113,-25,-140v-45,-55,-98,-40,-172,-42r0,350r58,0","w":805},"\u0445":{"d":"532,0r-138,0r-133,-196r-133,196r-138,0r204,-272r-191,-258r134,0r124,182r124,-182r134,0r-190,258","w":522},"\u0446":{"d":"601,0r-481,0v-19,0,-39,-1,-58,-17v-21,-18,-22,-37,-22,-57r0,-456r117,0r0,402v0,10,1,23,8,30v8,8,24,8,32,8r212,0r0,-440r117,0r0,440r75,0r0,90","w":591},"\u0447":{"d":"515,0r-117,0r0,-222r-234,0v-32,0,-82,-4,-109,-44v-46,-68,-18,-166,-25,-264r117,0v4,67,-11,140,10,192v16,24,43,26,64,26r177,0r0,-218r117,0r0,530","w":555},"\u0448":{"d":"157,-125v-4,19,11,35,28,35r166,0r0,-440r117,0r0,440r167,0v15,3,31,-16,27,-35r0,-405r117,0r0,450v0,24,0,42,-19,60v-22,20,-47,20,-74,20r-553,0v-26,0,-54,0,-74,-20v-17,-17,-19,-38,-19,-60r0,-450r117,0r0,405","w":819},"\u0449":{"d":"157,-125v-2,28,8,35,27,35r167,0r0,-440r117,0r0,440r194,0r0,-440r117,0r0,440r76,0r0,90r-722,0v-27,0,-53,2,-74,-19v-18,-18,-19,-42,-19,-61r0,-450r117,0r0,405","w":855},"\u044a":{"d":"98,-406v3,-19,-11,-38,-30,-34r-68,0r0,-90v67,5,150,-15,194,16v40,45,14,115,21,185r239,0v33,0,70,7,99,40v32,37,35,88,35,130v0,35,-2,97,-40,131v-30,27,-69,28,-102,28r-269,0v-18,0,-40,-1,-59,-19v-20,-19,-20,-41,-20,-62r0,-325xm215,-239v7,58,-23,150,33,149r153,0v17,0,38,-1,52,-17v19,-35,24,-81,0,-115v-12,-17,-35,-17,-48,-17r-190,0","w":614},"\u044b":{"d":"40,-530r117,0r0,201r239,0v33,0,70,7,99,40v32,37,35,88,35,130v0,35,-2,97,-40,131v-30,27,-69,28,-102,28r-269,0v-18,0,-40,-1,-59,-19v-20,-19,-20,-41,-20,-62r0,-449xm593,0r0,-530r117,0r0,530r-117,0xm157,-239v7,58,-23,150,33,149r153,0v17,0,38,-1,52,-17v19,-35,24,-81,0,-115v-12,-17,-35,-17,-48,-17r-190,0","w":750},"\u044c":{"d":"40,-530r117,0r0,201r239,0v33,0,70,7,99,40v32,37,35,88,35,130v0,35,-2,97,-40,131v-30,27,-69,28,-102,28r-269,0v-18,0,-40,-1,-59,-19v-20,-19,-20,-41,-20,-62r0,-449xm157,-239v7,58,-23,150,33,149r153,0v17,0,38,-1,52,-17v19,-35,24,-81,0,-115v-12,-17,-35,-17,-48,-17r-190,0","w":556},"\u044d":{"d":"26,0r0,-90v123,-8,289,31,334,-56v11,-21,16,-58,16,-86r-336,0r0,-90r335,0v1,-25,-7,-59,-24,-80v-30,-35,-86,-38,-115,-38r-203,0r0,-90r262,0v83,0,124,34,150,57v67,61,61,343,4,407v-49,55,-112,66,-184,66r-239,0","w":522},"\u044e":{"d":"157,-318r78,0v3,-59,17,-120,65,-163v59,-52,143,-55,212,-55v65,0,158,3,213,55v37,35,66,102,66,211v0,100,-24,178,-66,219v-55,53,-149,57,-213,57v-69,0,-153,-4,-212,-57v-60,-54,-67,-134,-65,-177r-78,0r0,228r-117,0r0,-530r117,0r0,212xm384,-403v-44,61,-32,234,1,274v34,41,87,45,127,45v38,0,95,-3,128,-45v10,-13,30,-46,30,-138v0,-92,-20,-125,-29,-136v-33,-42,-95,-43,-129,-43v-34,0,-97,0,-128,43","w":817},"\u044f":{"d":"158,-366v-9,94,56,78,133,79v14,0,51,3,51,45v0,26,-10,42,-20,54r-165,188r-137,0r174,-183v9,-8,9,-19,-3,-18v-123,14,-154,-81,-154,-171v0,-74,33,-158,130,-158r270,0v17,0,46,1,66,19v24,22,25,61,25,78r0,433r-117,0r0,-399v0,-4,0,-25,-8,-33v-8,-8,-24,-8,-34,-8r-153,0v-41,-2,-62,33,-58,74","w":568},"\u00a0":{}}});